{"layers":[{"0":{},"1":{},"2":{},"3":{},"4":{},"5":{},"6":{},"7":{}},{"0":{"bias":0.07206533094230196,"weights":{"0":-0.48629931217841926,"1":-0.2943933410920391,"2":-0.49322476321807385,"3":-0.37905634265892124,"4":-0.10482803917399817,"5":-0.885873717885211,"6":-0.2711415590788181,"7":-0.13004875459960577}},"1":{"bias":6.284939405955901,"weights":{"0":-1.5469302913250003,"1":-2.478327858938735,"2":-2.6301422969759125,"3":-3.747774910330572,"4":-0.24218297356664437,"5":-5.402210128559589,"6":-1.177605117525113,"7":-0.18787020209013444}},"2":{"bias":-2.987793743985011,"weights":{"0":0.7482543987563498,"1":-2.0405962584904325,"2":-2.3156953164483647,"3":4.327935444134442,"4":3.962872945516991,"5":1.350485049129845,"6":-2.0340143157416892,"7":-0.06166589996830832}},"3":{"bias":-1.2024563959547063,"weights":{"0":0.15101544788895296,"1":-0.38180762239593125,"2":-0.38512214661482724,"3":1.418667481486297,"4":0.6740031264213958,"5":0.5260556984428337,"6":-0.029660163577701446,"7":0.17568592936184046}},"4":{"bias":-2.8676110613620294,"weights":{"0":2.5125573005629276,"1":-4.345059002579826,"2":-1.813321105188829,"3":2.6921266966008366,"4":5.308820472131102,"5":-2.1731563480758638,"6":6.828520956830743,"7":-0.17837806083771898}},"5":{"bias":2.9254181401877526,"weights":{"0":1.0498827274854161,"1":2.451960495696619,"2":-1.5433881965875513,"3":-1.4433470957175702,"4":-1.6286458721196353,"5":1.588330268107871,"6":-6.672523376457977,"7":-0.15944201210677786}},"6":{"bias":2.186688944085702,"weights":{"0":0.16499090874573089,"1":0.5869497482758085,"2":-0.2812504989030869,"3":-2.1495316073107547,"4":-1.2133790683711196,"5":-0.48252640990840284,"6":-3.040598125616448,"7":0.19171097927172287}},"7":{"bias":1.3325279256312659,"weights":{"0":-0.2480378461255214,"1":-0.24128051196823522,"2":-0.636240762420289,"3":-1.42424773699529,"4":-0.3715490234800937,"5":-1.545964577036157,"6":-0.8935947050106784,"7":-0.059418255694413696}},"8":{"bias":-0.2500030779503962,"weights":{"0":-0.35047712653905905,"1":-0.1628431723880273,"2":-0.4171994815724862,"3":-0.318634849566443,"4":-0.2148301100221811,"5":-0.6743300159511498,"6":-0.3616448145749592,"7":-0.027719247820138182}},"9":{"bias":-1.8902336577405152,"weights":{"0":0.46905861142550165,"1":-1.5557146127058867,"2":-1.973737598901926,"3":3.077424966044739,"4":2.407377726945869,"5":0.9343767695764972,"6":-1.7493741427097578,"7":-0.07814328671105174}}},{"0":{"bias":0.7832833206566583,"weights":{"0":1.1816777609519127,"1":10.41975377669486,"2":-6.6317017466138495,"3":-1.372095821060395,"4":-9.177179471199993,"5":6.433908644721844,"6":3.963661886157709,"7":2.848379196115651,"8":0.9410959702005212,"9":-4.11155614477318}}}],"outputLookup":false,"inputLookup":false}