{"layers":[{"0":{},"1":{},"2":{},"3":{},"4":{},"5":{},"6":{},"7":{}},{"0":{"bias":1.527824506822664,"weights":{"0":-3.0522725189652653,"1":-2.410802589825954,"2":3.635830530494879,"3":-0.5462430318422667,"4":-7.495327410877706,"5":7.006411463730568,"6":-5.766438091295894,"7":-0.014863814148565357}},"1":{"bias":-7.190918895233487,"weights":{"0":-0.12188378083694887,"1":1.3506103090688595,"2":-1.8751957214183441,"3":-4.000306998746955,"4":4.611148622210982,"5":-1.042021921034233,"6":10.247447582007842,"7":0.11192319409279067}},"2":{"bias":0.46443004730013265,"weights":{"0":-0.052079926206046845,"1":-0.428151277591702,"2":-1.5858307910508689,"3":-1.575753588679575,"4":0.13440695855105717,"5":-1.2787032396556757,"6":-0.402110991213533,"7":0.1640032906960473}},"3":{"bias":-0.2234129461833855,"weights":{"0":0.001270675016072525,"1":-0.36658586114451186,"2":-1.2183586315438977,"3":-1.0627611084695876,"4":0.17754336753395256,"5":-1.0572752079469072,"6":-0.2950877223448884,"7":0.11902078732445903}},"4":{"bias":3.5888481251266824,"weights":{"0":1.6078832898437048,"1":-6.474384277553358,"2":-4.564032224278773,"3":-3.922815890745853,"4":3.3315106168845943,"5":0.3153543982626278,"6":1.1347473325078903,"7":0.03899266843690857}},"5":{"bias":-3.2400577595350444,"weights":{"0":2.3589571960616764,"1":-3.8332213973999854,"2":-3.401365483039614,"3":5.912537856197952,"4":5.285061992691489,"5":-0.3208832293273623,"6":-1.2439093093889413,"7":-0.12745646257482193}},"6":{"bias":5.945072931210131,"weights":{"0":-6.340170854617889,"1":6.037741126213156,"2":-4.259685726417703,"3":-3.5500814317545952,"4":-0.8831880094789502,"5":-6.147399423044527,"6":1.6275291423289044,"7":-0.06997434410353229}},"7":{"bias":2.231484413355596,"weights":{"0":0.023725859537360318,"1":-0.571940890225063,"2":-3.4070121126475614,"3":-3.7562796164385706,"4":0.7413444090066982,"5":-2.6542630951316113,"6":0.12487223592085547,"7":0.02970571657768728}},"8":{"bias":0.1819759099785414,"weights":{"0":-0.11054018877214876,"1":-0.3722814662972968,"2":-1.2437399826667628,"3":-1.3087762857250642,"4":-0.09741628362396755,"5":-0.9894226067761411,"6":-0.5813308539860776,"7":0.02250103833727818}},"9":{"bias":-0.5540918302837056,"weights":{"0":-0.1830903346658962,"1":-0.34815244495876885,"2":-0.4038901064864982,"3":0.1504199878644991,"4":-0.3049284121332859,"5":-0.11997203554091196,"6":-0.3066760463248642,"7":0.12887679780269096}}},{"0":{"bias":-2.8344285182516638,"weights":{"0":9.802292545067363,"1":-12.599543704526381,"2":2.139003834628914,"3":1.3692722062543337,"4":8.585043751706527,"5":-14.22883601319067,"6":8.62915582944937,"7":5.025052724306378,"8":1.7368845463663514,"9":-0.3177082440239932}}}],"outputLookup":false,"inputLookup":false}