{"layers":[{"0":{},"1":{},"2":{},"3":{},"4":{},"5":{},"6":{},"7":{}},{"0":{"bias":-4.88097544495262,"weights":{"0":0.07314707261842616,"1":-0.15673081042196774,"2":1.0165491919704797,"3":1.7607786115525201,"4":-1.158108815999153,"5":-0.4466393544223459,"6":6.139948867724948,"7":-0.10411210285698039}},"1":{"bias":2.3327888675238,"weights":{"0":-6.790618926003491,"1":4.363240101732574,"2":-1.8620641012828905,"3":-3.7255949121630763,"4":-3.934000592225304,"5":-2.8033921085270985,"6":0.21028735325832987,"7":0.12883446067115356}},"2":{"bias":-3.1680999685261946,"weights":{"0":1.0301052207933021,"1":4.180765250945413,"2":0.4101081379999356,"3":4.910586039844721,"4":6.721102866210056,"5":-1.6919674719027868,"6":-5.640501813454642,"7":0.04763473846524652}},"3":{"bias":0.012264868642174995,"weights":{"0":-0.09402535880409577,"1":-0.32480704164780716,"2":-0.22892888576910228,"3":-0.1808680374896363,"4":0.07207771386329964,"5":-0.3836495198352021,"6":-0.7171339178080053,"7":-0.16897094019597525}},"4":{"bias":-0.9542501934033343,"weights":{"0":-0.2522764189554814,"1":0.3534464944016025,"2":0.9966765546811736,"3":0.6269904848503493,"4":0.13461257122202527,"5":0.15545504404473692,"6":0.8984867534184933,"7":0.16199593425406367}},"5":{"bias":3.6197662761342455,"weights":{"0":-3.525727893396091,"1":-0.6589195934341302,"2":-4.015897726165066,"3":-0.3576743575744538,"4":0.18424887816529906,"5":-3.6957561987088106,"6":3.3837599623746724,"7":0.13097148034028655}},"6":{"bias":0.8899922985188743,"weights":{"0":0.4385004206362253,"1":-0.3351264051705891,"2":-0.6501054069654814,"3":-0.8748906284090757,"4":0.30844241118514065,"5":-0.4038050698416318,"6":-1.022363950598449,"7":-0.06053420334812998}},"7":{"bias":3.063215159280154,"weights":{"0":4.573545586904963,"1":-4.722605210509321,"2":-1.8755029146980406,"3":-1.5265344552411297,"4":1.9982900262712606,"5":-1.0973344837069872,"6":-3.336729748536379,"7":0.16395192909820216}},"8":{"bias":0.07274475268129235,"weights":{"0":0.155331854875321,"1":-0.31880153134532013,"2":-0.33254948347545665,"3":-0.3495486936437043,"4":0.1950358499403049,"5":-0.36394896325072973,"6":-0.7567792787221574,"7":-0.06498078562678797}},"9":{"bias":-4.210654412187784,"weights":{"0":-2.82126704831232,"1":-1.9309696195023789,"2":2.4703128755232098,"3":-1.2975001541700428,"4":8.12445004768914,"5":0.8713853740021885,"6":-2.0575077100701025,"7":-0.12228199807835907}}},{"0":{"bias":0.6433829503385915,"weights":{"0":-8.497823812630141,"1":10.59221557103097,"2":-10.935084072229984,"3":1.1577439380209376,"4":-1.992426638514498,"5":8.377852326552386,"6":2.339205746652163,"7":8.128897361791081,"8":1.3631221296895302,"9":-9.005278323234661}}}],"outputLookup":false,"inputLookup":false}